-0.0019838663882099598,0.02312160085202911,-0.00594186857410074,-0.012125710987094102,-0.032900112835382606,-0.009059545021332216,-0.016624839665583216,-0.02080081977014482,-0.015598543390341944,0.08850423897224365,-0.011630351809687042,0.0009817987411769712,0.008364301942190068,-0.003103745098349273,-0.013565619343755596,-0.005145885539064555,-0.004011410752165699,0.005211684883861744,0.031224990985765692,-2.1935837926015404e-05,-0.005698218893072506,0.004113248413218493,-0.012394241589376277,0.009445643184344928,-0.009637661457392258,-0.004434660110328812,0.02218611180176516,0.04840016022050523,-0.016999379964058335,-0.006424071442669853,-0.012018971795850937,0.0027024761108282035,0.004473281386905131,-0.02211451397583149,-0.0018127508112535007,0.008867448978391116,0.015019373568334245,0.02698929815416419,0.008029807763510673,0.013069897077940932,-0.003441043327304711,0.00955500905643765,0.006875268790523743,0.034035508063348756,0.0031072552760668688,-0.014123936666770965,0.03303173245249289,0.020654096344370987,0.022009443571360893,0.022234095053312967,0.023428734988907643,0.03878174865548164,0.01954093063324536,0.027720241738213903,0.07383397227427464,-0.027899724018203374,-0.045577729105086826,-0.030163871789215813,-0.030435173306152988,-0.031944170402763414,-0.030623219021789844,-0.04268130184342257,-0.03210142075774766,-0.01133290928945096,0.012715262819944463,-0.002612887678846884,-0.010435620154718526,-0.01772997468080789,-0.010719546782040672,-0.030055455138183543,-0.0038200124375402703,0.02253914803578765,0.11273610260463103,0.007192666534649894,0.0087698405235311,0.001159047720436765,0.016377844656844796,-0.004510192604805651,0.008466831569638827,0.008020356120759858,0.002695730403120639,0.07125385022110274,0.002525521785699456,0.012007034018307796,0.03049898117131096,-0.05931848883214458,0.029063551913823604,0.15750120334343326,-0.2874604200364901,0.13258234542308087,0.6931771569830256,0.0009154203185125431,-0.00030096655759632784,-0.010043698202189784,0.0024664184429498267,-0.005602421517928789,0.00014034989740681307,-0.01227900425630334,-0.019846725168328125,-0.015854356346696647,0.018533720661875867,-0.0006294045184487911,-0.009040630133498718,-0.023444590609296666,-0.027508614200756926,-0.018413065802149037,-0.0284508494314126,0.036479343957385134,0.05209226771322778,-0.031542124172187075,0.03632664980017697,-0.0013823965035250174,-0.003906628685975185,-0.007192630333911678,0.008094412876593236,-0.018168483506912733,0.012162750888553798,0.036854572244052065,0.025210807143108596,0.00831558600744207,0.003321825928820001,-0.008198127287398545,0.015361755970126277,0.006306754868035563,0.0023562335077294758,-0.011816430082926212,-0.0013117582188362444,-0.007176769118891803,0.012516858206937131,-0.005370990645991009,0.018434734910413603,0.0072732498564817465,0.0007086725141962574,-0.017228607177236285,0.010209022870299955,0.011737628372220319,-0.008680387901059848,0.0003507009925148939,0.0034890541266090276,-0.014312242464830505,-0.007838743292826012,0.0038590342483886216,-0.003668840209371006,-0.011572798976002314,0.0011465703026645698,-0.008043832408176332,-0.004425816490560819,0.013239814618927313,-0.005735371323777996,-0.004748104350793606,0.0020004107350987408,-0.0007102962248868968,-0.006231538266369801,9.304946767885458e-05,-0.005809667033176579,0.012964008355172316,-0.012746381667817436,-0.00760935076103979,0.010532910204711561,0.013086803842315097,-0.006045298581874886,-0.015240011346658235,0.00010136890962933421